svm_type one_class
kernel_type rbf
gamma 0.5
nr_class 2
total_sv 33
rho 29.8773
SV
1 1:0.132 2:0.546 
1 1:0.214 2:0.666 
1 1:0.598 2:0.822 
0.8791841959599872 1:0.56 2:0.82 
1 1:0.392 2:0.852 
1 1:0.246 2:0.874 
1 1:0.046 2:0.79 
1 1:0.15 2:0.684 
1 1:0.262 2:0.784 
1 1:0.294 2:0.844 
1 1:0.17 2:0.614 
1 1:0.048 2:0.548 
1 1:0.072 2:0.43 
1 1:0.146 2:0.522 
1 1:0.226 2:0.592 
0.1208158040400128 1:0.332 2:0.46 
1 1:0.592 2:0.446 
1 1:0.664 2:0.532 
1 1:0.564 2:0.432 
1 1:0.438 2:0.422 
1 1:0.262 2:0.492 
1 1:0.726 2:0.704 
1 1:0.858 2:0.762 
1 1:0.67 2:0.822 
1 1:0.762 2:0.908 
1 1:0.5 2:0.884 
1 1:0.632 2:0.89 
1 1:0.81 2:0.59 
1 1:0.686 2:0.388 
1 1:0.514 2:0.24 
1 1:0.694 2:0.61 
1 1:0.8 2:0.69 
1 1:0.472 2:0.376 
