svm_type nu_svc
kernel_type rbf
gamma 0.5
nr_class 2
total_sv 11
rho 100.9
obj 11395.7
label 1 2
nr_sv 4 7
SV
5909.583426515099 1:0.46 2:0.528 
5909.583426515099 1:0.43 2:0.558 
5909.583426515099 1:0.444 2:0.612 
1181.916685303021 1:0.53 2:0.604 
-54.07692709767015 1:0.582 2:0.676 
-5909.583426515099 1:0.514 2:0.496 
-5909.583426515099 1:0.472 2:0.7 
-1127.839758205351 1:0.39 2:0.596 
-1668.235941673869 1:0.332 2:0.46 
-3702.268190051766 1:0.382 2:0.524 
-539.079294789464 1:0.436 2:0.482 
