svm_type c_svc
kernel_type rbf
gamma 0.5
nr_class 2
total_sv 12
rho -1.00078
label 3 1
nr_sv 7 5
SV
0.1631909982498055 1:0.328 2:0.48 
1 1:0.258 2:0.586 
0.7609800888693964 1:0.202 2:0.786 
0.07582891288079807 1:0.406 2:0.28 
1 1:0.324 2:0.336 
1 1:0.224 2:0.514 
1 1:0.178 2:0.656 
-1 1:0.172 2:0.528 
-1 1:0.19 2:0.442 
-1 1:0.258 2:0.382 
-1 1:0.168 2:0.608 
-1 1:0.192 2:0.732 
