svm_type one_class
kernel_type rbf
gamma 0.5
nr_class 2
total_sv 25
rho 41.6682
SV
1 1:0.598 2:0.844 
1 1:0.834 2:0.708 
1 1:0.736 2:0.772 
1 1:0.656 2:0.574 
1 1:0.202 2:0.786 
1 1:0.37 2:0.89 
1 1:0.512 2:0.902 
1 1:0.568 2:0.772 
1 1:0.722 2:0.908 
1 1:0.672 2:0.778 
1 1:0.7 2:0.692 
1 1:0.816 2:0.832 
1 1:0.406 2:0.28 
1 1:0.324 2:0.336 
1 1:0.544 2:0.318 
1 1:0.622 2:0.396 
1 1:0.706 2:0.488 
1 1:0.754 2:0.564 
1 1:0.882 2:0.738 
1 1:0.73 2:0.926 
1 1:0.576 2:0.94 
1 1:0.334 2:0.954 
1 1:0.23 2:0.884 
19.56291991371241 1:0.19 2:0.442 
2.436630086287586 1:0.192 2:0.732 
