svm_type nu_svc
kernel_type rbf
gamma 0.5
nr_class 2
total_sv 7
rho 3.77051
obj 337.288
label 3 1
nr_sv 4 3
SV
131.5418542064597 1:0.202 2:0.786 
348.1602391016499 1:0.324 2:0.336 
685.2887047258712 1:0.224 2:0.514 
685.2887047258712 1:0.178 2:0.656 
-479.7020933081096 1:0.172 2:0.528 
-685.2887047258712 1:0.258 2:0.382 
-685.2887047258712 1:0.192 2:0.732 
