svm_type svdd
kernel_type rbf
gamma 0.5
nr_class 2
total_sv 44
rho 0.46212
obj -0.0354937
radius 0.257395
SV
0.02272727272727273 1:0.456 2:0.388 
0.02272727272727273 1:0.328 2:0.48 
0.02272727272727273 1:0.318 2:0.646 
0.02272727272727273 1:0.394 2:0.774 
0.02272727272727273 1:0.598 2:0.844 
0.02272727272727273 1:0.834 2:0.708 
0.02272727272727273 1:0.586 2:0.494 
0.02272727272727273 1:0.46 2:0.474 
0.02272727272727273 1:0.506 2:0.802 
0.02272727272727273 1:0.736 2:0.772 
0.02272727272727273 1:0.656 2:0.574 
0.02272727272727273 1:0.62 2:0.656 
0.02272727272727273 1:0.424 2:0.572 
0.02272727272727273 1:0.258 2:0.586 
0.02272727272727273 1:0.202 2:0.786 
0.02272727272727273 1:0.37 2:0.89 
0.02272727272727273 1:0.512 2:0.902 
0.02272727272727273 1:0.43 2:0.696 
0.02272727272727273 1:0.568 2:0.772 
0.02272727272727273 1:0.722 2:0.908 
0.02272727272727273 1:0.672 2:0.778 
0.02272727272727273 1:0.7 2:0.692 
0.02272727272727273 1:0.816 2:0.832 
0.02272727272727273 1:0.406 2:0.28 
0.02272727272727273 1:0.324 2:0.336 
0.02272727272727273 1:0.224 2:0.514 
0.02272727272727273 1:0.178 2:0.656 
0.02272727272727273 1:0.282 2:0.77 
0.02272727272727273 1:0.478 2:0.55 
0.02272727272727273 1:0.572 2:0.602 
0.02272727272727273 1:0.544 2:0.318 
0.02272727272727273 1:0.622 2:0.396 
0.02272727272727273 1:0.706 2:0.488 
0.02272727272727273 1:0.754 2:0.564 
0.02272727272727273 1:0.882 2:0.738 
0.02272727272727273 1:0.73 2:0.926 
0.02272727272727273 1:0.576 2:0.94 
0.02272727272727273 1:0.334 2:0.954 
0.02272727272727273 1:0.23 2:0.884 
0.02272727272727273 1:0.172 2:0.528 
0.02272727272727273 1:0.19 2:0.442 
0.02272727272727273 1:0.258 2:0.382 
0.02272727272727273 1:0.168 2:0.608 
0.02272727272727273 1:0.192 2:0.732 
