svm_type svdd
kernel_type linear
nr_class 2
total_sv 23
rho 0.280183
obj -0.0561683
radius 0.281092
SV
0.04545454545454546 1:0.834 2:0.708 
0.04545454545454546 1:0.736 2:0.772 
0.04545454545454546 1:0.202 2:0.786 
0.04545454545454546 1:0.722 2:0.908 
0.04545454545454546 1:0.816 2:0.832 
0.04545454545454546 1:0.406 2:0.28 
0.04545454545454546 1:0.324 2:0.336 
0.01652670902740906 1:0.224 2:0.514 
0.04545454545454546 1:0.178 2:0.656 
0.04545454545454546 1:0.544 2:0.318 
0.04545454545454546 1:0.622 2:0.396 
0.0289278364271364 1:0.706 2:0.488 
0.04545454545454546 1:0.754 2:0.564 
0.04545454545454546 1:0.882 2:0.738 
0.04545454545454546 1:0.73 2:0.926 
0.04545454545454546 1:0.576 2:0.94 
0.04545454545454546 1:0.334 2:0.954 
0.04545454545454546 1:0.23 2:0.884 
0.04545454545454546 1:0.172 2:0.528 
0.04545454545454546 1:0.19 2:0.442 
0.04545454545454546 1:0.258 2:0.382 
0.04545454545454546 1:0.168 2:0.608 
0.04545454545454546 1:0.192 2:0.732 
