svm_type svdd
kernel_type linear
nr_class 2
total_sv 32
rho 0.282476
obj -0.047204
radius 0.116142
SV
0.03125 1:0.132 2:0.546 
0.03125 1:0.214 2:0.666 
0.03125 1:0.598 2:0.822 
0.03125 1:0.56 2:0.82 
0.03125 1:0.392 2:0.852 
0.03125 1:0.246 2:0.874 
0.03125 1:0.046 2:0.79 
0.03125 1:0.15 2:0.684 
0.03125 1:0.262 2:0.784 
0.03125 1:0.294 2:0.844 
0.03125 1:0.17 2:0.614 
0.03125 1:0.048 2:0.548 
0.03125 1:0.072 2:0.43 
0.03125 1:0.146 2:0.522 
0.03125 1:0.226 2:0.592 
0.03125 1:0.592 2:0.446 
0.03125 1:0.664 2:0.532 
0.03125 1:0.564 2:0.432 
0.03125 1:0.438 2:0.422 
0.03125 1:0.262 2:0.492 
0.03125 1:0.726 2:0.704 
0.03125 1:0.858 2:0.762 
0.03125 1:0.67 2:0.822 
0.03125 1:0.762 2:0.908 
0.03125 1:0.5 2:0.884 
0.03125 1:0.632 2:0.89 
0.03125 1:0.81 2:0.59 
0.03125 1:0.686 2:0.388 
0.03125 1:0.514 2:0.24 
0.03125 1:0.694 2:0.61 
0.03125 1:0.8 2:0.69 
0.03125 1:0.472 2:0.376 
