svm_type one_class
kernel_type rbf
gamma 1
nr_class 2
total_sv 36
rho 244.766
SV
1 1:0.456 2:0.388 
1 1:0.394 2:0.774 
1 1:0.598 2:0.844 
1 1:0.834 2:0.708 
1 1:0.586 2:0.494 
1 1:0.46 2:0.474 
1 1:0.49 2:0.652 
1 1:0.506 2:0.802 
1 1:0.736 2:0.772 
1 1:0.656 2:0.574 
1 1:0.62 2:0.656 
1 1:0.202 2:0.786 
1 1:0.37 2:0.89 
1 1:0.512 2:0.902 
1 1:0.43 2:0.696 
1 1:0.568 2:0.772 
1 1:0.722 2:0.908 
1 1:0.672 2:0.778 
1 1:0.7 2:0.692 
1 1:0.816 2:0.832 
1 1:0.406 2:0.28 
1 1:0.324 2:0.336 
1 1:0.282 2:0.77 
1 1:0.478 2:0.55 
1 1:0.572 2:0.602 
1 1:0.544 2:0.318 
1 1:0.622 2:0.396 
1 1:0.706 2:0.488 
1 1:0.754 2:0.564 
1 1:0.882 2:0.738 
1 1:0.73 2:0.926 
1 1:0.576 2:0.94 
1 1:0.334 2:0.954 
1 1:0.23 2:0.884 
120.1266574079123 1:0.258 2:0.382 
110.8733425920877 1:0.192 2:0.732 
